{"type":"zr","options":{"inputSize":1,"inputRange":0,"hiddenLayers":[12,8],"outputSize":1,"decayRate":0.999,"smoothEps":1e-8,"regc":0.000001,"clipval":5,"maxPredictionLength":100,"dataFormatter":{"indexTable":{},"characterTable":{},"characters":[],"specialIndexes":[]}},"hiddenLayers":[{"inputMatrix":{"rows":12,"columns":1,"weights":[-0.3654768168926239,4.30949068069458,4.955633640289307,2.2973597049713135,4.284928321838379,2.1115479469299316,1.644826889038086,1.3118070363998413,1.5911967754364014,0.8493548631668091,-0.3066710829734802,1.1566952466964722]},"inputHidden":{"rows":12,"columns":12,"weights":[-0.07025191187858582,0.45396387577056885,-0.2658475637435913,0.3109768331050873,0.02402515523135662,0.09138750284910202,-0.15658321976661682,0.09892430156469345,0.12413967400789261,0.2847689092159271,-0.09996264427900314,0.0570855475962162,0.09827320277690887,-1.955210566520691,1.2131986618041992,-7.081636428833008,0.6629484295845032,-2.1663191318511963,0.016851477324962616,-0.3508763015270233,-0.5909493565559387,2.1512973308563232,0.000038446352846222,-0.5132017135620117,-0.1223108246922493,3.5325820446014404,-2.2816078662872314,-0.8357996940612793,0.4129635989665985,1.5760973691940308,-1.2665996551513672,0.20922650396823883,0.9068983197212219,0.13763143122196198,0.09795224666595459,-1.320623755455017,0.18046382069587708,0.30397912859916687,-1.8333436250686646,-3.830850124359131,0.1086067408323288,-0.18933157622814178,-0.4440816342830658,0.37286338210105896,0.1811497062444687,3.0862746238708496,-0.16650064289569855,-0.4241553246974945,0.09649800509214401,6.417451858520508,-0.27273285388946533,-3.0651731491088867,-0.23952938616275787,0.31762418150901794,-0.5242601037025452,0.16977699100971222,-0.11913678795099258,-1.0947630405426025,0.2836264669895172,-0.16294324398040771,-0.04297979176044464,-3.4495420455932617,-1.8805046081542969,-1.3009196519851685,0.5258438587188721,-1.7118912935256958,0.04176506772637367,-0.4376836121082306,-0.4616699814796448,2.451821804046631,-0.013845989480614662,0.2445509284734726,-0.05939299240708351,3.6488165855407715,-1.855024814605713,0.8150582909584045,0.6618847250938416,-1.0831503868103027,-1.078953742980957,-0.018482429906725883,0.642637312412262,1.2707655429840088,0.2447923719882965,-0.007538331672549248,-0.016588203608989716,4.238742351531982,-0.504986584186554,2.2190871238708496,0.22359904646873474,0.18051016330718994,-0.30588051676750183,-0.08509769290685654,-0.009752138517796993,1.9921931028366089,0.006903680507093668,-0.034588251262903214,-0.09933629631996155,0.8370606899261475,-0.6886786222457886,1.2356709241867065,-0.02648506686091423,-0.3286544382572174,-0.49707409739494324,0.1658177524805069,0.40303289890289307,-1.0500837564468384,0.04235720634460449,-0.015500469133257866,0.1625344455242157,6.913116455078125,-0.15079694986343384,-3.838991165161133,0.5798208117485046,0.3246352970600128,0.2232653945684433,-0.9823410511016846,-0.9250741600990295,5.252067565917969,0.02086811326444149,0.21813306212425232,0.035418763756752014,0.6892375946044922,-0.4282434582710266,0.8828349709510803,0.10021838545799255,0.469907283782959,-0.24939213693141937,0.20296898484230042,0.3183097541332245,-0.10996771603822708,0.06180635094642639,-0.1984175592660904,0.07392268627882004,-3.00042986869812,0.8574819564819336,-3.351545810699463,-0.41509613394737244,3.2938027381896973,-0.108527772128582,0.037178993225097656,-0.008780859410762787,-0.1517515629529953,-0.006238956470042467,-0.9695984721183777]},"inputBias":{"rows":12,"columns":1,"weights":[-1.3922889232635498,0.7955119609832764,-2.4472947120666504,0.40703845024108887,-4.499833583831787,-1.3182404041290283,-3.2345869541168213,-2.8855488300323486,-2.4966580867767334,-2.8481669425964355,-1.2545363903045654,-2.3956964015960693]},"forgetMatrix":{"rows":12,"columns":1,"weights":[-0.03830047696828842,-0.4589061439037323,0.5679774284362793,2.3879878520965576,0.060640059411525726,0.5512093305587769,0.4089776277542114,0.4342964291572571,0.2539830207824707,2.327744245529175,0.007281638216227293,-0.1931466907262802]},"forgetHidden":{"rows":12,"columns":12,"weights":[-0.08148770779371262,-0.023906810209155083,0.013569028116762638,0.084593266248703,-0.06375443190336227,-0.0031857721041888,0.012304475530982018,0.01899384893476963,0.04880885034799576,-0.04616783931851387,-0.019584523513913155,0.023792341351509094,-0.028950361534953117,-1.6544666290283203,-4.082805156707764,-4.430431842803955,1.78708016872406,-0.28198206424713135,-2.452162981033325,0.9153701663017273,1.9001967906951904,-2.207051992416382,-0.1570771038532257,0.4508167505264282,-0.00048084795707836747,-3.0619394779205322,0.2637077271938324,-1.8920400142669678,0.0538497120141983,0.6738322377204895,-0.009390202350914478,0.05920328199863434,0.04729345813393593,0.6932545900344849,-0.09110286086797714,-0.25124016404151917,-0.1395345777273178,-0.07959843426942825,1.3633623123168945,0.4863099157810211,-0.7198691368103027,-0.47595417499542236,0.5337474346160889,-0.3974766731262207,-0.7300075888633728,1.1849337816238403,-0.05013692378997803,0.5956838130950928,-0.0019360928563401103,-0.14674820005893707,0.022555343806743622,-0.020955586805939674,0.11429128050804138,-0.090979665517807,0.06110452860593796,-0.03336937725543976,-0.08434392511844635,0.11130727082490921,-0.028299430385231972,0.038625914603471756,-0.03508199378848076,-1.240246295928955,-0.5238008499145508,-1.5073333978652954,0.14649219810962677,-1.314479947090149,0.1058046966791153,-0.27665117383003235,-0.3289930522441864,1.8310372829437256,0.041431330144405365,0.2046455293893814,0.029371866956353188,-0.76870197057724,-0.04770461842417717,-0.4779675006866455,0.04300929605960846,0.07914458215236664,-0.16619795560836792,0.11630058288574219,0.19153210520744324,0.2408892959356308,-0.02153431624174118,-0.06243399903178215,0.01337526272982359,0.40401628613471985,-0.261873334646225,0.30994537472724915,0.07655832171440125,-0.13981352746486664,-0.26871785521507263,0.22139830887317657,0.3131312429904938,-0.1627000868320465,-0.0071791913360357285,0.060903150588274,-0.01645055040717125,0.08466435223817825,-0.3936324119567871,0.5351866483688354,0.006639562081545591,-0.08180920779705048,-0.3094562590122223,0.29198071360588074,0.427411288022995,-0.4709993898868561,-0.02151503600180149,0.07685916870832443,0.06335683166980743,2.2959482669830322,-0.35616710782051086,-1.8503459692001343,0.3478742241859436,0.025118280202150345,-0.37209007143974304,0.05375175178050995,0.1377486139535904,1.2813857793807983,0.05453168600797653,-0.01961243897676468,-0.05263984575867653,0.08972423523664474,0.03786601126194,0.038090940564870834,0.05982528626918793,-0.04084552079439163,0.025078482925891876,0.05630352348089218,0.009826704859733582,0.03155277669429779,0.005381450988352299,0.03539000824093819,-0.014848086051642895,-0.02336275577545166,0.6236891150474548,1.0190606117248535,-0.0076908222399652,0.6554686427116394,-0.03285966441035271,-0.025675002485513687,-0.030789701268076897,-0.3668413460254669,0.041866905987262726,-0.38874322175979614]},"forgetBias":{"rows":12,"columns":1,"weights":[0,0,0,0,0,0,0,0,0,0,0,0]},"outputMatrix":{"rows":12,"columns":1,"weights":[-0.5623757243156433,6.702826499938965,6.430515289306641,5.844030380249023,4.394190311431885,2.6805665493011475,2.9086453914642334,1.9611517190933228,1.8861432075500488,8.35811710357666,-0.276554673910141,0.9887771010398865]},"outputHidden":{"rows":12,"columns":12,"weights":[-0.05505469813942909,0.48989975452423096,-0.4023004174232483,0.5831418633460999,-0.004565621726214886,-0.04936230555176735,-0.07461381703615189,0.13790223002433777,0.05265700817108154,0.2715243399143219,-0.04365520179271698,0.14260314404964447,0.3098881244659424,-3.459770917892456,0.5145154595375061,-7.989552021026611,0.5558443069458008,-0.061801083385944366,0.38049039244651794,-0.0902065634727478,-0.43074384331703186,-0.8164830207824707,-0.29089727997779846,-0.05152743309736252,-0.04231099411845207,-3.23441219329834,-1.5125406980514526,-4.94141960144043,0.4479503929615021,3.449397563934326,-0.7301750183105469,-0.18814508616924286,0.17632952332496643,3.7051849365234375,-0.033712346106767654,-0.9967025518417358,-0.3690832555294037,6.502231597900391,0.00091888866154477,1.1219340562820435,-4.1167426109313965,1.7643440961837769,1.2204328775405884,-0.24871377646923065,-0.5604590773582458,-1.3217633962631226,0.0954056978225708,2.211760997772217,0.09528184682130814,6.791661739349365,-0.11612346768379211,-2.963881731033325,-0.14747707545757294,0.04675889387726784,-0.561407208442688,0.2612300217151642,-0.06663292646408081,-0.7949354648590088,0.29645785689353943,-0.2815857231616974,-0.011688088066875935,-5.497591018676758,-5.389642238616943,-2.8977062702178955,0.8840555548667908,-3.589109182357788,-0.2643272578716278,-0.46622005105018616,-0.2025669664144516,4.4551472663879395,-0.0010216038208454847,0.3577063977718353,-0.08319537341594696,2.03195858001709,-1.4707220792770386,-0.10357356071472168,0.6079993844032288,-0.711184561252594,-0.9764900207519531,-0.10882940143346786,0.5565902590751648,1.8099219799041748,0.09433490037918091,-0.056451283395290375,-0.13821059465408325,5.198373317718506,-1.577130913734436,2.845954656600952,0.5949956774711609,-0.340008944272995,-1.2664424180984497,0.7877813577651978,0.9418907761573792,0.5493516325950623,0.1312074512243271,-0.07194449752569199,-0.23522938787937164,1.1551449298858643,-1.580985188484192,1.9311556816101074,0.04129650443792343,-0.7774060368537903,-1.262759804725647,0.8262116312980652,1.2577675580978394,-1.9769436120986938,0.04129670932888985,0.21253789961338043,-0.13723739981651306,16.226266860961914,-3.0938775539398193,0.21785575151443481,0.3062233626842499,0.37067702412605286,-1.8192579746246338,1.6588084697723389,1.4461567401885986,-0.24246439337730408,0.3746911883354187,0.2957015633583069,-0.03321313112974167,0.767264723777771,-0.5444885492324829,0.8760835528373718,0.14250606298446655,0.4238911271095276,-0.18744339048862457,0.09267465025186539,0.24286743998527527,-0.02715069241821766,-0.021360047161579132,-0.20519471168518066,0.08526334166526794,-2.094888210296631,1.4323468208312988,-3.0045626163482666,-0.750512957572937,4.178925037384033,-0.14039263129234314,0.09037159383296967,0.05736704543232918,-0.745776891708374,-0.06210905686020851,-1.7861063480377197]},"outputBias":{"rows":12,"columns":1,"weights":[-1.4209789037704468,1.7963403463363647,-3.642212390899658,0.24184216558933258,-4.523029804229736,-1.631136178970337,-3.470888376235962,-2.9469425678253174,-2.5908374786376953,-1.9456590414047241,-1.2667633295059204,-2.4442129135131836]},"cellActivationMatrix":{"rows":12,"columns":1,"weights":[0.8395881652832031,-11.664422988891602,3.755206823348999,-10.05459976196289,-1.2545517683029175,3.174138307571411,2.9603095054626465,-3.0007102489471436,-3.3984830379486084,3.159345865249634,-0.7412008047103882,1.286327600479126]},"cellActivationHidden":{"rows":12,"columns":12,"weights":[-0.3590586483478546,0.0018415969097986817,0.34292373061180115,-0.31939002871513367,-0.5426052212715149,-0.5097470879554749,0.13634996116161346,0.0926392674446106,-0.07052944600582123,-1.2453527450561523,-0.17529770731925964,0.5696631073951721,0.009756210260093212,-1.9868718385696411,1.699937343597412,0.14809995889663696,-3.928420066833496,-0.07825405895709991,0.9795925617218018,-0.06134136766195297,-0.04896773770451546,-1.0327506065368652,0.013841974548995495,-0.8103051781654358,-0.26047396659851074,2.585279941558838,-1.930465579032898,4.625804901123047,-0.2860243320465088,-3.587895393371582,-1.5386815071105957,0.970965564250946,1.3074644804000854,-4.930978775024414,0.2487623393535614,0.3574557304382324,0.32370463013648987,5.349663734436035,-3.732558012008667,1.1104710102081299,1.7739348411560059,1.3346951007843018,-0.7728493213653564,1.1250278949737549,1.336927056312561,-0.41142719984054565,-0.09111227840185165,-0.3243468403816223,0.047731343656778336,-4.873071193695068,3.076990842819214,-5.590447902679443,-0.3101098835468292,0.9551712870597839,1.1279473304748535,-0.3969575762748718,-0.7454070448875427,1.4081501960754395,-0.3880773186683655,-0.09238645434379578,0.09422130137681961,-1.9137179851531982,1.2662866115570068,-1.535446286201477,-2.3799026012420654,6.025307655334473,1.3881109952926636,-0.44356203079223633,-1.4272886514663696,-2.2809503078460693,-0.27201536297798157,-0.08134713023900986,-0.18789774179458618,2.4387805461883545,-2.3020026683807373,2.4188170433044434,0.207729771733284,-1.3193434476852417,-1.9392949342727661,0.6781582832336426,1.3710733652114868,-1.7562029361724854,0.2959398925304413,0.15028813481330872,-0.08232749253511429,-2.062915802001953,-0.08108270168304443,-0.6035764813423157,-0.2403799295425415,-0.48945221304893494,-0.14978408813476562,0.88139408826828,0.643305778503418,-1.9479540586471558,-0.05318064242601395,0.2574121057987213,-0.004603761248290539,-1.2449404001235962,0.6069384813308716,-1.1975339651107788,-0.2518111765384674,-0.16843260824680328,0.47404682636260986,0.4134586751461029,0.05286477878689766,-0.8549838066101074,-0.1910313069820404,0.12300048768520355,0.08693475276231766,0.6945446729660034,0.42518535256385803,-0.25094810128211975,0.14392399787902832,0.5384907722473145,0.38046690821647644,-1.064988374710083,-0.8344576358795166,1.9710439443588257,-0.10659677535295486,-0.15636737644672394,-0.13648517429828644,0.153315469622612,-0.008597790263593197,0.3714897334575653,-0.13045820593833923,1.4582221508026123,-0.08926108479499817,0.08352840691804886,0.20521000027656555,0.3143276870250702,-0.20763029158115387,-0.1000567376613617,0.19445854425430298,1.4257831573486328,-2.2607192993164062,-0.07549446076154709,0.7644762992858887,-1.4468464851379395,-0.0681663230061531,-0.1572694182395935,0.12027942389249802,4.970836162567139,0.1380225270986557,-1.2131980657577515]},"cellActivationBias":{"rows":12,"columns":1,"weights":[-0.22754254937171936,2.76025128364563,0.1314036250114441,0.6812486052513123,0.025839315727353096,1.3056468963623047,-0.26838383078575134,0.12599831819534302,0.3289194703102112,1.9055049419403076,0.18489547073841095,-0.9388836026191711]}},{"inputMatrix":{"rows":8,"columns":12,"weights":[-0.33435511589050293,-0.8084685206413269,-1.8853819370269775,2.8100244998931885,-0.751853346824646,0.6564637422561646,-0.8920642137527466,0.7176781296730042,1.2552508115768433,-3.826007843017578,-0.08881105482578278,-1.5166176557540894,-0.13548295199871063,-0.392039030790329,1.1874221563339233,-1.0439417362213135,-0.06935861706733704,1.5838673114776611,-0.7471431493759155,0.9251669049263,1.016419768333435,-2.448641061782837,0.041883084923028946,-0.9112983345985413,0.1801605224609375,3.17393159866333,0.4280293881893158,0.7711542248725891,0.998291015625,-0.6867278814315796,-0.09299178421497345,0.43779659271240234,0.8042266368865967,-2.5458874702453613,-0.03513006120920181,-1.9395253658294678,-0.5037935376167297,-8.799904823303223,-7.430738925933838,-0.2317543476819992,0.5646809339523315,10.479534149169922,2.4475486278533936,-2.559190034866333,-0.05580662935972214,2.3261518478393555,-0.22247669100761414,-3.7375996112823486,-0.5781955122947693,0.42558392882347107,-2.319760322570801,2.7993052005767822,0.3824172616004944,-0.947358250617981,-1.525831699371338,2.134418487548828,1.1243630647659302,-6.563168048858643,-0.4983534514904022,3.354715347290039,-0.7073100805282593,3.263198137283325,-0.54106605052948,4.1000471115112305,0.14996680617332458,-1.1306666135787964,-0.49997976422309875,-1.0476984977722168,0.8777240514755249,-0.2482917755842209,0.10927920788526535,-0.3016924262046814,0.004576317500323057,3.2428834438323975,-0.30847492814064026,1.0530611276626587,0.10557559132575989,1.0874500274658203,-0.7333425879478455,0.6557453870773315,0.9053117632865906,-2.325455665588379,0.10177335143089294,-0.9860056638717651,0.19481909275054932,6.350677967071533,-3.1398396492004395,-1.4245322942733765,0.702592670917511,0.7550838589668274,-0.36176609992980957,1.059122085571289,1.125731348991394,-3.7207581996917725,-0.08810433000326157,0.3635011613368988]},"inputHidden":{"rows":8,"columns":8,"weights":[-0.5495426058769226,-0.3401317298412323,-0.2259383648633957,-0.3742262125015259,0.5218746066093445,0.4179394543170929,0.13591481745243073,0.13357146084308624,0.12610265612602234,-0.3193831741809845,-0.3904484808444977,-0.3677639365196228,0.968268096446991,0.5073630213737488,0.25141456723213196,0.3950563371181488,-0.3031700551509857,-0.5599817633628845,-0.6900913119316101,-0.62213534116745,0.34531891345977783,1.0086439847946167,0.5694230794906616,0.37661078572273254,-0.049839578568935394,0.0435207225382328,0.3463348150253296,-0.3061266243457794,-0.7773405313491821,-0.454567015171051,-0.05363304540514946,-0.18268221616744995,0.34709233045578003,-0.1517501026391983,-0.3683813512325287,-0.971832275390625,0.7651900053024292,0.729877233505249,0.33210524916648865,0.755539059638977,0.3997957706451416,-0.47259521484375,-0.9755218625068665,-0.6811225414276123,0.947798490524292,1.076400876045227,0.6840262413024902,0.9154959321022034,-0.2288106232881546,-0.2708931267261505,-0.36833661794662476,-0.3312496244907379,0.041282884776592255,0.48325324058532715,0.028454896062612534,0.2265874147415161,-0.25291386246681213,-0.3677125573158264,-0.6111302375793457,-0.09634579718112946,-0.45007187128067017,1.0300743579864502,0.388027161359787,0.2665930986404419]},"inputBias":{"rows":8,"columns":1,"weights":[-3.0963053703308105,-3.86458683013916,-4.319684028625488,-7.155819892883301,0.4656607210636139,-3.1034727096557617,-4.346888542175293,-6.297016143798828]},"forgetMatrix":{"rows":8,"columns":12,"weights":[0.10503954440355301,0.2601029574871063,-0.04359446465969086,0.04926025867462158,0.07281409204006195,-0.23035083711147308,-0.18769769370555878,0.29187464714050293,0.2720035910606384,-0.4272817373275757,-0.024206794798374176,0.15058065950870514,-0.022493697702884674,-0.05279264971613884,-0.06338751316070557,0.26985010504722595,-0.045048344880342484,-0.06763970851898193,-0.17808285355567932,0.13777399063110352,0.2354571670293808,-0.19346711039543152,0.05232960730791092,0.24934393167495728,-0.07099980115890503,0.1909884661436081,-0.24135544896125793,0.7340422868728638,-0.03436871990561485,-0.130329892039299,-0.22658728063106537,0.18790897727012634,0.3393285274505615,0.055992402136325836,0.014099708758294582,0.0008331591379828751,-0.04290914535522461,-1.4783391952514648,-0.5618461966514587,0.592342734336853,-0.11569369584321976,-1.0689418315887451,-0.3125462830066681,0.10182850062847137,0.16376623511314392,-0.4885125458240509,0.022654835134744644,0.09058928489685059,-0.18663473427295685,0.7991225123405457,0.020307300612330437,0.7094694972038269,-0.23090030252933502,-1.7505435943603516,-0.23810791969299316,0.267437219619751,0.24005694687366486,0.39573878049850464,0.08778084069490433,0.12138794362545013,-0.04679390788078308,0.0470467247068882,-0.37139686942100525,0.6709192991256714,-0.04327325522899628,-0.06121266633272171,-0.26146095991134644,0.3288171887397766,0.4541562795639038,-0.3675904870033264,0.021232448518276215,-0.005385810509324074,0.014178287237882614,0.10371778160333633,-0.15140710771083832,0.1523522138595581,0.06489484012126923,-0.051337409764528275,-0.1397695392370224,0.17344380915164948,0.2970062494277954,-0.33799928426742554,-0.022510837763547897,0.07356323301792145,0.019046172499656677,0.269788920879364,-0.18784014880657196,0.4821692705154419,-0.04423988237977028,0.011683056131005287,-0.23323377966880798,0.28169047832489014,0.26440536975860596,-0.09584246575832367,-0.0018249417189508677,0.04713907092809677]},"forgetHidden":{"rows":8,"columns":8,"weights":[-0.2164086401462555,0.05492882430553436,0.034209299832582474,-0.04517028480768204,-0.04352891817688942,-0.010260239243507385,-0.026241792365908623,0.04137030616402626,0.04880532622337341,0.01713167130947113,-0.03855377063155174,-0.09784123301506042,-0.04776052385568619,0.012764819897711277,-0.020155835896730423,-0.011118232272565365,-0.05378984659910202,-0.0371406115591526,-0.15541447699069977,-0.07170761376619339,0.09539715200662613,0.16914694011211395,0.13655319809913635,0.09014085680246353,-0.05004684627056122,-0.05594904348254204,-0.004982220474630594,-0.28620845079421997,-0.02979634329676628,0.006929254624992609,-0.06296782940626144,0.04344679415225983,0.06683281809091568,0.1304711252450943,-0.05278359726071358,-0.15382303297519684,0.036529432982206345,-0.14628832042217255,-0.0011654272675514221,0.1314772218465805,0.09067650139331818,-0.06067574769258499,-0.07627087831497192,-0.12251761555671692,-0.04087577387690544,0.14555560052394867,0.057549990713596344,0.21264605224132538,-0.008370345458388329,-0.04397369548678398,-0.02258227951824665,-0.030142109841108322,0.043990060687065125,-0.004660464823246002,0.05214785784482956,0.02699466422200203,-0.10129673779010773,0.04227178543806076,-0.09851942211389542,-0.06512576341629028,0.02391742542386055,0.0357530377805233,0.08977710455656052,-0.07820948213338852]},"forgetBias":{"rows":8,"columns":1,"weights":[0,0,0,0,0,0,0,0]},"outputMatrix":{"rows":8,"columns":12,"weights":[-0.21210306882858276,0.6105175018310547,-1.49457848072052,3.326270341873169,-0.5758239030838013,-0.7622108459472656,-1.2001157999038696,1.1513028144836426,1.6773828268051147,-4.592850208282471,-0.04802658036351204,-1.1647361516952515,-0.1411260962486267,-0.3459853529930115,0.9507004022598267,-0.6260873079299927,-0.052671879529953,1.5367616415023804,-0.9817434549331665,1.12234365940094,1.177377700805664,-2.7175920009613037,-0.04657801613211632,-0.7613421082496643,-0.13592003285884857,3.6763927936553955,-0.2864243984222412,2.213914632797241,0.7693784236907959,-0.9975100755691528,-0.6910063028335571,0.6721503138542175,0.9962987899780273,-2.5116777420043945,0.02960861474275589,-1.9124821424484253,-0.6617606282234192,-1.2700070142745972,-0.8555270433425903,-2.1391615867614746,-1.1631970405578613,-1.7922813892364502,0.5689030289649963,-3.2016780376434326,1.1292725801467896,1.0895594358444214,1.2339483499526978,-1.4321820735931396,-0.8381208181381226,0.10295430570840836,-3.098015546798706,4.933366775512695,-0.09531038999557495,-1.1537421941757202,-1.4880235195159912,2.1971981525421143,1.4959203004837036,-5.029117584228516,-0.2536304295063019,5.310622692108154,-0.8242492079734802,2.399550437927246,-0.923862636089325,2.688616991043091,0.011424541473388672,-1.3532105684280396,-0.7777343988418579,-0.7764711976051331,1.376123309135437,-0.9081407785415649,0.266692191362381,-0.14717130362987518,-0.06490261852741241,3.5613791942596436,-0.7083137035369873,1.6638284921646118,0.022318990901112556,1.0619251728057861,-1.1236881017684937,1.0314033031463623,1.3006236553192139,-2.6306369304656982,0.04204244539141655,-0.8723418116569519,0.01638845168054104,7.689844608306885,-4.086104393005371,-0.6144030094146729,0.5429603457450867,1.4569382667541504,-0.7495970129966736,1.4226394891738892,1.5971992015838623,-3.919404983520508,0.07558505237102509,-0.34791991114616394]},"outputHidden":{"rows":8,"columns":8,"weights":[-0.8556067943572998,-0.3887369930744171,-0.3071809411048889,-0.28509435057640076,0.4219188094139099,0.6002691388130188,0.09334172308444977,0.30631038546562195,0.10300177335739136,-0.45167088508605957,-0.5696380138397217,-0.33317041397094727,1.018384337425232,0.5075989961624146,0.286182165145874,0.4092373251914978,-0.1968086063861847,-0.7282838821411133,-0.8501498699188232,-0.7681174874305725,0.5885997414588928,1.3158127069473267,0.7831025719642639,0.5540953278541565,-0.4673786163330078,0.1697365641593933,0.9444035887718201,-0.05232314392924309,-3.245492458343506,-1.4510403871536255,-0.1065579354763031,-0.5853800177574158,0.46977701783180237,-0.21334725618362427,-0.5185336470603943,-0.8862780928611755,1.690964698791504,0.7954028844833374,0.39232149720191956,1.0335807800292969,0.7407591342926025,-0.77741539478302,-1.4815114736557007,-0.735430121421814,1.6374298334121704,1.6671899557113647,0.9738365411758423,1.551912546157837,-0.37606281042099,-0.26514995098114014,-0.3535294830799103,-0.309664249420166,0.08803915977478027,0.6314907670021057,0.203055739402771,0.33346372842788696,-0.36561059951782227,-0.4571148455142975,-0.7726472616195679,-0.19574253261089325,-0.3688807189464569,1.283460021018982,0.6057915091514587,0.4526931345462799]},"outputBias":{"rows":8,"columns":1,"weights":[-2.685140609741211,-3.909834146499634,-3.975588321685791,-6.639890193939209,0.21316102147102356,-3.8740134239196777,-4.294477939605713,-5.865086555480957]},"cellActivationMatrix":{"rows":8,"columns":12,"weights":[0.0833398699760437,-1.2008789777755737,-1.485352635383606,4.141757488250732,0.230044886469841,1.2976858615875244,-1.8840994834899902,2.76705002784729,2.7622628211975098,-7.106314659118652,-0.23103810846805573,0.6158703565597534,0.21295063197612762,3.3730039596557617,-1.4863693714141846,-3.3274223804473877,0.2280237227678299,2.279334306716919,0.2741371989250183,-1.163563847541809,-0.6645872592926025,2.070905923843384,0.19654813408851624,-2.013972759246826,0.3586234748363495,1.7649753093719482,0.6670690774917603,-4.3838210105896,1.3880459070205688,-0.32876846194267273,-0.06921881437301636,-2.030168294906616,-1.3921176195144653,3.971975088119507,0.05302629992365837,-0.5810374617576599,-0.899426281452179,4.3741455078125,-1.455909013748169,-0.9911701083183289,1.8167470693588257,-4.3010358810424805,0.6816365718841553,-1.0727717876434326,-0.030150245875120163,1.4336265325546265,1.5227795839309692,-4.761186122894287,-0.4983291029930115,-1.4982811212539673,0.09605684131383896,7.538982391357422,0.5750260353088379,0.5586008429527283,-1.5362403392791748,1.7592979669570923,1.4821778535842896,-4.998414039611816,0.164528489112854,-0.45913320779800415,-0.3880448043346405,-1.9113436937332153,-0.8236774206161499,0.7906978130340576,-0.24676960706710815,-0.5123236775398254,-0.4620073139667511,1.7985790967941284,1.3427249193191528,-3.2117693424224854,-0.23655536770820618,0.3856137990951538,-0.17640914022922516,-1.7756842374801636,-0.6749252676963806,2.650235414505005,-0.2615385949611664,-0.5521442294120789,-0.09559160470962524,1.151458501815796,0.8340340256690979,-2.665560245513916,0.026807118207216263,0.5303155183792114,0.03469356894493103,-0.5040902495384216,-2.224545478820801,-0.7273126244544983,-0.132516011595726,0.5807940363883972,-0.6496924757957458,2.397040605545044,2.451254367828369,-8.777652740478516,0.2865735590457916,-1.232464075088501]},"cellActivationHidden":{"rows":8,"columns":8,"weights":[-1.827670931816101,0.09563885629177094,0.5075209140777588,-0.026278186589479446,-1.2040892839431763,0.2630951702594757,-0.7380858063697815,-0.6679413318634033,-0.35850778222084045,-0.8464489579200745,-0.6930800080299377,0.41082316637039185,0.7628969550132751,0.8660062551498413,0.9372970461845398,-0.33070462942123413,0.9829860925674438,-0.7027731537818909,-1.5118566751480103,0.3702487349510193,0.8002942204475403,1.238572597503662,1.439579725265503,0.6746795177459717,0.307802677154541,0.7259090542793274,1.0518097877502441,-1.105248212814331,-0.42164525389671326,-1.3692009449005127,-0.6500548720359802,0.06906169652938843,-0.27659037709236145,0.7984054684638977,1.0612907409667969,-0.10961493849754333,-1.7469886541366577,-0.9004311561584473,-1.0412410497665405,0.18639226257801056,0.3091032803058624,0.6880784034729004,0.46221622824668884,-0.6594483256340027,-0.3366718292236328,-0.6450002193450928,-0.7302623391151428,0.35576120018959045,-0.7527567148208618,0.9090700745582581,1.5002473592758179,-0.45114433765411377,-0.7135516405105591,-1.1469411849975586,-1.7296435832977295,-0.49066123366355896,-1.0944474935531616,0.10503007471561432,0.2850891351699829,0.30984988808631897,-0.06209772825241089,0.10260273516178131,-0.030594849959015846,-1.4884095191955566]},"cellActivationBias":{"rows":8,"columns":1,"weights":[-0.41973069310188293,-1.2397739887237549,0.5315921306610107,-0.021425416693091393,-0.3329038619995117,-0.48866745829582214,-0.4580691158771515,-1.114429235458374]}}],"outputConnector":{"rows":1,"columns":8,"weights":[2.3610732555389404,-3.0916085243225098,-2.2806296348571777,-6.903141498565674,0.2966654300689697,1.3584047555923462,2.5467538833618164,2.438343048095703]},"output":{"rows":1,"columns":1,"weights":[0.2050895094871521]},"inputLookup":null,"inputLookupLength":0,"outputLookup":null,"outputLookupLength":0}