{"type":"zr","options":{"inputSize":1,"inputRange":0,"hiddenLayers":[12,8],"outputSize":1,"decayRate":0.999,"smoothEps":1e-8,"regc":0.000001,"clipval":5,"maxPredictionLength":100,"dataFormatter":{"indexTable":{},"characterTable":{},"characters":[],"specialIndexes":[]}},"hiddenLayers":[{"inputMatrix":{"rows":12,"columns":1,"weights":[2.8049094676971436,3.647756814956665,-2.797394275665283,-2.0012826919555664,0.34460803866386414,2.354051351547241,-2.9108526706695557,2.9710323810577393,-0.7071526646614075,-1.364628791809082,1.496417760848999,-0.3281879723072052]},"inputHidden":{"rows":12,"columns":12,"weights":[1.1102516651153564,7.2671799659729,-3.796628475189209,-0.42134982347488403,0.919773280620575,2.9652462005615234,-0.16254973411560059,-0.03351883590221405,-0.34641146659851074,-0.4757426083087921,2.343494176864624,-1.5312261581420898,-2.6806159019470215,2.6840054988861084,4.2010321617126465,0.6587607860565186,-1.2902514934539795,0.4284268617630005,-0.5951504707336426,0.32955682277679443,-0.3827463388442993,0.10669232904911041,4.405983924865723,-0.9557957053184509,4.742539882659912,-4.491396427154541,1.201466679573059,1.5350135564804077,8.247802734375,-2.526865005493164,-1.0686838626861572,-3.539229393005371,-1.109928011894226,1.088064193725586,-0.03672836720943451,1.1547902822494507,0.8661127686500549,-1.1099514961242676,-2.409364938735962,0.7905114889144897,1.5944987535476685,0.01994641311466694,-0.4433367848396301,-1.519675850868225,0.25808268785476685,0.15816964209079742,-1.7080577611923218,-0.9578309655189514,-1.7592061758041382,4.453686714172363,0.7869458198547363,-1.211966633796692,0.3701174259185791,2.338592290878296,-0.7109034061431885,3.890737771987915,0.5804200172424316,-1.137040376663208,3.1999497413635254,-2.5508110523223877,0.4709126353263855,3.572972059249878,0.3779009282588959,-0.20463721454143524,-2.3340251445770264,0.027052950114011765,-0.8887344002723694,3.1277048587799072,0.14777259528636932,-0.29492759704589844,2.00384259223938,-2.645216226577759,-7.9915852546691895,1.3805665969848633,-1.9028513431549072,-0.42180532217025757,4.0496439933776855,5.468545436859131,-0.8652667999267578,0.8022968173027039,0.22864501178264618,0.1522541493177414,1.086008071899414,0.02061270736157894,-0.048787254840135574,-2.3936550617218018,2.9128103256225586,0.1633332371711731,-4.678042888641357,0.22495253384113312,-2.2603752613067627,3.1450066566467285,-0.05464104935526848,0.6349130868911743,-0.41542109847068787,3.076131820678711,1.0764214992523193,-1.1184234619140625,-1.7630290985107422,-1.0160458087921143,1.97921621799469,0.6808215379714966,1.050885796546936,-2.4355056285858154,-0.20852652192115784,-0.42156118154525757,-2.949385404586792,-1.3262860774993896,-0.08636681735515594,-0.8477128744125366,-0.5737500190734863,0.29444000124931335,1.3572461605072021,0.1623818427324295,0.2046201080083847,-0.44011974334716797,0.033537037670612335,0.017902785912156105,-1.0558085441589355,-0.1266312599182129,-0.9364373087882996,1.942924976348877,5.488755702972412,1.4629286527633667,-1.4059298038482666,1.9824799299240112,-1.1380674839019775,0.5415191650390625,0.08524668216705322,2.240630626678467,2.350425958633423,4.521434307098389,0.15999437868595123,2.572446346282959,-3.7216458320617676,0.13871991634368896,-0.8469338417053223,1.3414851427078247,-1.6808745861053467,-2.08477783203125,0.11458928883075714,-0.30275392532348633,0.7615512609481812,-1.742314100265503]},"inputBias":{"rows":12,"columns":1,"weights":[0.07772022485733032,2.2163169384002686,4.316224575042725,-2.383448600769043,-3.897331953048706,-1.1143224239349365,-0.9866085648536682,0.8184903860092163,-2.901271343231201,-1.7249335050582886,0.09036221355199814,0.29415076971054077]},"forgetMatrix":{"rows":12,"columns":1,"weights":[-0.8416510820388794,2.5299158096313477,0.4525955021381378,-0.20011018216609955,-0.3437192440032959,1.9831968545913696,-0.03094949759542942,0.6644675135612488,0.7565196752548218,-0.24919147789478302,0.23663115501403809,-1.1738293170928955]},"forgetHidden":{"rows":12,"columns":12,"weights":[0.09541783481836319,-0.1320372074842453,-3.662006139755249,0.24794022738933563,-3.362858533859253,-0.8411155343055725,-1.0132591724395752,1.0759726762771606,0.10916183888912201,0.3046625852584839,-2.3786890506744385,-0.08611299097537994,-3.409834861755371,0.9529929161071777,0.7664740085601807,-0.1197156086564064,5.654717445373535,1.4023048877716064,0.7485024333000183,-4.520650863647461,0.4293563961982727,0.7382929921150208,-1.2347253561019897,1.0768946409225464,-3.3191192150115967,-2.348069190979004,4.830113410949707,0.47704482078552246,-0.8169171810150146,-0.3614824712276459,-0.40965864062309265,3.3928375244140625,0.10410323739051819,0.49060529470443726,1.9767930507659912,1.4234384298324585,0.046138446778059006,-0.21352852880954742,-0.2721221446990967,0.15279778838157654,0.1345847249031067,-0.09688800573348999,-0.07479113340377808,0.04204665124416351,0.10967925190925598,0.02897789143025875,-0.15546876192092896,0.17613723874092102,2.247745990753174,3.226381778717041,-1.7002044916152954,-0.5130513906478882,-2.328683614730835,-3.505312919616699,0.5877246260643005,-1.8168383836746216,0.16576069593429565,-0.4181116223335266,-0.2821640074253082,-1.8419348001480103,-1.867713212966919,-5.494592189788818,0.41411465406417847,0.0409415140748024,1.8190340995788574,-3.1779160499572754,-0.05353890359401703,1.326592206954956,-0.015835793688893318,0.06444232910871506,-2.6454551219940186,0.2785843014717102,0.5053722262382507,-0.16792726516723633,-0.2396296262741089,0.140112966299057,-0.3802596628665924,-0.2501976490020752,-1.1985738277435303,-0.4283769726753235,-0.03359624743461609,0.11328895390033722,-0.23592853546142578,0.5684005618095398,5.179443359375,-3.5008230209350586,-1.2911491394042969,0.04654804989695549,-1.894973635673523,-2.065232753753662,-0.9592553973197937,-2.583963394165039,0.004278839100152254,0.22624631226062775,1.8148308992385864,0.18555483222007751,0.7979186177253723,0.1851787269115448,-0.7173178195953369,0.1336236298084259,0.04561344534158707,0.08514347672462463,0.1259986311197281,-0.04284166544675827,-0.14876297116279602,-0.03537990525364876,-0.043795593082904816,-0.523870050907135,0.13621239364147186,-0.35653865337371826,-0.31803077459335327,0.05908045172691345,0.19983020424842834,-0.000051295046432642266,0.12357798218727112,-0.18227724730968475,0.02096058614552021,0.02698894776403904,-0.4664662778377533,0.09397584944963455,0.7379615306854248,-1.700557827949524,1.99618399143219,0.4913562536239624,1.9107860326766968,-0.2189747393131256,-1.4358640909194946,1.4156997203826904,-0.1803489625453949,0.57122403383255,3.663311243057251,1.660537838935852,0.6532492637634277,-1.2497926950454712,-0.8751809000968933,0.36790284514427185,-0.07170624285936356,-0.42269036173820496,0.32564136385917664,-0.33416515588760376,-0.3467804491519928,-0.007527689915150404,-1.3281831741333008,0.3030412793159485]},"forgetBias":{"rows":12,"columns":1,"weights":[0,0,0,0,0,0,0,0,0,0,0,0]},"outputMatrix":{"rows":12,"columns":1,"weights":[1.5450656414031982,5.589277744293213,-0.01301240548491478,-2.007434844970703,2.275437593460083,0.1253558248281479,-1.9016242027282715,1.7379034757614136,0.26533737778663635,-1.515881061553955,1.1113916635513306,-4.033932685852051]},"outputHidden":{"rows":12,"columns":12,"weights":[2.3441758155822754,0.5277050137519836,1.9846348762512207,-0.9629333019256592,-2.2732720375061035,-3.7119665145874023,0.10846178978681564,0.4366666078567505,-0.8849456906318665,0.11572754383087158,1.8250389099121094,-3.938133716583252,-0.30750489234924316,1.1837706565856934,-3.160936117172241,-0.8460580706596375,1.7546011209487915,-0.04244259372353554,2.9758944511413574,-1.993082880973816,0.8366714119911194,-0.38378944993019104,-2.5041143894195557,0.4406035840511322,0.22077028453350067,-5.189361095428467,2.875481128692627,1.7959485054016113,2.2685658931732178,-0.7291144728660583,-1.8759238719940186,3.5132246017456055,0.032249536365270615,2.010709047317505,1.2785760164260864,0.45557212829589844,0.967041015625,-1.4030165672302246,-2.501873254776001,0.9243680238723755,1.7633639574050903,-0.04892965778708458,-0.5936163067817688,-1.4539562463760376,0.36701977252960205,0.2453964799642563,-1.7999743223190308,-0.8244873285293579,-2.991338014602661,5.8862528800964355,0.1781478077173233,-1.8563776016235352,-3.284878730773926,3.7669994831085205,0.6165817975997925,4.948750972747803,1.1525994539260864,-1.6795793771743774,0.10184039920568466,-3.491715431213379,0.5018300414085388,0.7759672403335571,3.3826708793640137,0.22562046349048615,-1.8922425508499146,0.5186044573783875,-0.34866634011268616,1.4710111618041992,0.14475806057453156,-0.22814986109733582,1.5166435241699219,-1.6251215934753418,-4.771666526794434,0.11560454219579697,-5.965847015380859,-0.29231366515159607,0.6277485489845276,2.7257981300354004,-3.695021390914917,0.8694068789482117,0.16772162914276123,0.4309215545654297,-2.1528594493865967,-0.6167373657226562,0.8110668659210205,-1.6569222211837769,6.341081142425537,0.5069417953491211,-3.8058927059173584,-2.3208069801330566,-2.953869104385376,-0.9816048741340637,-0.02742547169327736,1.0286791324615479,-1.7759140729904175,4.391175746917725,2.2183785438537598,-0.19325047731399536,-2.6233973503112793,-0.9075182676315308,2.079235315322876,0.6846371293067932,1.438090443611145,-2.4059855937957764,-0.11850938200950623,-0.45077916979789734,-2.783830404281616,-2.235729455947876,0.051522232592105865,-1.2181870937347412,-0.8205115795135498,0.5025182962417603,1.6984556913375854,0.08760007470846176,0.31454405188560486,-0.8061992526054382,-0.042828500270843506,0.21897800266742706,-1.4751173257827759,0.12965597212314606,-7.454677104949951,-1.6630138158798218,-8.755247116088867,0.4045635461807251,0.3401634693145752,1.3949975967407227,1.9793269634246826,-0.6408676505088806,1.6894372701644897,1.9251513481140137,-1.5867600440979004,3.713117837905884,4.249514579772949,1.4697351455688477,-1.3292256593704224,1.5234609842300415,-3.5167949199676514,-3.0677073001861572,-1.8524200916290283,-3.4915192127227783,-2.142324209213257,-0.10776539891958237,-3.3216898441314697,-0.5636550784111023]},"outputBias":{"rows":12,"columns":1,"weights":[0.6047967076301575,-0.11463702470064163,4.227237224578857,-2.3778367042541504,-3.9553329944610596,-1.7863471508026123,-1.2696715593338013,1.3066402673721313,-2.902717113494873,-1.950460433959961,0.04360058531165123,-2.4829766750335693]},"cellActivationMatrix":{"rows":12,"columns":1,"weights":[-10.002147674560547,13.434076309204102,6.355137348175049,0.5652306079864502,1.6038860082626343,10.89980697631836,-6.444913864135742,8.924968719482422,1.5457309484481812,-2.4162023067474365,7.778432369232178,-8.39880657196045]},"cellActivationHidden":{"rows":12,"columns":12,"weights":[-1.7679657936096191,0.05050524324178696,0.22401361167430878,-0.6805533766746521,-0.22061698138713837,-1.1801406145095825,-0.4613586664199829,0.5623450875282288,-1.1945077180862427,0.1323622614145279,-0.6041765809059143,-0.9273546934127808,-3.129056930541992,-1.8913112878799438,-1.1086704730987549,0.7428858280181885,2.721632719039917,3.251265048980713,0.29243719577789307,3.49845552444458,-0.49358507990837097,1.7702289819717407,0.8016510605812073,1.8885101079940796,-1.0606271028518677,-4.134265899658203,-0.01942070759832859,0.8692395091056824,6.9426164627075195,-3.007728099822998,0.0894365906715393,-1.3700965642929077,-4.920605182647705,0.764049232006073,0.3486933410167694,2.250636339187622,1.6328308582305908,-3.5435569286346436,-1.8762259483337402,0.7447709441184998,-0.4500950872898102,-1.074804425239563,0.7843131422996521,-2.9490106105804443,-0.1395401805639267,0.6550155878067017,-2.7378194332122803,1.9328569173812866,1.6069225072860718,-3.002070188522339,-3.1411359310150146,-1.1363568305969238,7.380053520202637,-4.8665971755981445,2.9429984092712402,-4.514099597930908,2.113654613494873,0.18670322000980377,-2.2699899673461914,-0.8617488145828247,0.28589415550231934,0.6730019450187683,-0.8077496886253357,-1.2977933883666992,1.1582391262054443,-0.34568965435028076,0.5825179815292358,0.14631472527980804,-0.6611320972442627,-0.6632912158966064,-0.6704080700874329,0.17211011052131653,1.5312952995300293,-0.5387412309646606,-1.1508042812347412,-0.4664781093597412,2.5339672565460205,-2.3804521560668945,0.512398898601532,-5.6316351890563965,1.5644309520721436,0.05778677016496658,-2.413681983947754,-4.189011096954346,-0.14834563434123993,0.17464017868041992,0.9574915170669556,0.327241450548172,-0.5242882966995239,0.15829241275787354,-2.3958792686462402,-0.9336826801300049,-0.64039546251297,0.1372024416923523,1.261088252067566,0.2244569957256317,-1.1016091108322144,6.290468215942383,-1.380857229232788,-0.7322803735733032,1.6252199411392212,1.3119540214538574,-0.2485136091709137,-1.326835036277771,1.2128379344940186,-1.7815749645233154,0.48069173097610474,-0.8210667967796326,0.27022722363471985,-0.7414087057113647,0.10061795264482498,0.013205020688474178,-0.7634910345077515,-0.3472369909286499,0.25101062655448914,-0.33566537499427795,0.021816324442625046,0.290197491645813,-0.4726621210575104,0.8858198523521423,-1.9811054468154907,1.693690299987793,0.1910143494606018,0.08577197045087814,3.3988709449768066,2.058328628540039,4.619899749755859,1.334033489227295,-0.5178552865982056,-0.3254157602787018,-1.1321794986724854,1.678442120552063,-2.3875463008880615,-1.1229050159454346,0.9188825488090515,0.013444313779473305,-0.3931211233139038,0.8218691945075989,0.3162372410297394,-0.9691663980484009,-0.20331312716007233,0.43919047713279724,-1.0919814109802246,3.793771982192993]},"cellActivationBias":{"rows":12,"columns":1,"weights":[2.312631130218506,0.22566284239292145,-0.7787678241729736,-0.9753252863883972,0.6323685050010681,-2.249526262283325,1.4410890340805054,-1.3730666637420654,-0.516053318977356,-0.7262553572654724,-1.348246455192566,0.8599533438682556]}},{"inputMatrix":{"rows":8,"columns":12,"weights":[0.44015997648239136,3.0438790321350098,-1.588119626045227,0.4018440842628479,-0.41595056653022766,-0.8284352421760559,0.8848340511322021,-1.368463397026062,0.608642578125,0.4064480662345886,-2.1407971382141113,-0.10904017090797424,1.5446772575378418,0.904812216758728,-0.1316658854484558,-0.2722586989402771,0.015035220421850681,-0.8328014612197876,0.2976752519607544,-0.24010802805423737,-0.48620152473449707,-0.18515774607658386,-1.2546820640563965,-0.25990742444992065,2.4013829231262207,-2.8852241039276123,-5.185153484344482,-0.6423283219337463,2.723443031311035,0.5786010026931763,1.2204604148864746,-3.0805459022521973,0.8959334492683411,0.1137554869055748,-2.585820436477661,-0.9050685167312622,-3.3643620014190674,1.1460376977920532,-1.9381051063537598,-1.5487425327301025,-1.182568073272705,6.164673328399658,0.5573474764823914,-0.7401055693626404,0.12095168977975845,-0.19827279448509216,-5.813151836395264,-1.462917685508728,-2.1977791786193848,1.7110817432403564,-0.8154383301734924,-0.5487183928489685,1.607728362083435,0.22188839316368103,1.4875656366348267,1.063439965248108,0.5796394944190979,0.07658197730779648,-1.7883288860321045,-1.0615358352661133,1.5332111120224,1.1101082563400269,-0.21433326601982117,-0.5565996766090393,-0.33988523483276367,-1.0079481601715088,0.674388587474823,-0.30386459827423096,0.1851569265127182,-0.14845629036426544,-0.26965323090553284,0.21867704391479492,4.194485664367676,9.724043846130371,-2.2228009700775146,-1.9054794311523438,0.18817858397960663,2.7817821502685547,-2.9466793537139893,0.8685177564620972,1.6829643249511719,-2.3277313709259033,2.037080764770508,-6.592496871948242,2.436962604522705,1.9511919021606445,-1.4441415071487427,-0.5147011280059814,-2.376556634902954,-2.076402425765991,0.6665772199630737,1.8480384349822998,0.5574462413787842,-0.15263649821281433,-1.58628249168396,-1.4809753894805908]},"inputHidden":{"rows":8,"columns":8,"weights":[-0.5841645002365112,-0.04605356231331825,-0.16136321425437927,-0.052052512764930725,-0.13729427754878998,0.06556583940982819,-0.5574631690979004,-0.11588891595602036,-0.06634055823087692,0.10307681560516357,0.07845986634492874,-0.17377476394176483,-0.1521836519241333,0.11320921033620834,-0.7483686804771423,0.06225769594311714,-0.6695809960365295,-0.3128446638584137,-0.39209043979644775,-1.0450234413146973,0.15273496508598328,-0.24613834917545319,-0.4468507468700409,-0.17775969207286835,-0.4139786660671234,-0.19497433304786682,0.7610419392585754,-0.7346472144126892,-0.5653066635131836,-0.12891986966133118,-1.9779584407806396,-0.11918139457702637,-0.545974612236023,-0.19311755895614624,-0.05591074749827385,-1.0105705261230469,0.3038996458053589,-0.20210930705070496,-1.873724341392517,-0.22591298818588257,-0.07942354679107666,0.04332869499921799,0.20152714848518372,-0.08616512268781662,-0.11790893226861954,0.01412738673388958,-0.7309635281562805,-0.08099096268415451,0.305817186832428,0.5740950703620911,2.304280996322632,0.2517460286617279,-1.7276124954223633,0.587873637676239,0.2967529892921448,0.6845482587814331,-0.1133032739162445,0.04670533910393715,0.18681873381137848,-0.13352584838867188,-0.04328465089201927,0.0808960348367691,-1.0616282224655151,-0.05424141138792038]},"inputBias":{"rows":8,"columns":1,"weights":[-3.927535057067871,-3.625033140182495,-6.1172661781311035,-3.692793846130371,-4.926865100860596,-3.4888226985931396,-0.8655964136123657,-5.082147598266602]},"forgetMatrix":{"rows":8,"columns":12,"weights":[-0.059380922466516495,-1.1539103984832764,0.5214985013008118,0.08975846320390701,-0.3043333888053894,0.16636492311954498,-0.049157269299030304,-0.21705670654773712,-0.047780655324459076,-0.031042423099279404,-0.3159537613391876,-0.19694185256958008,-0.044859472662210464,-0.10424617677927017,0.18425922095775604,0.021674752235412598,0.08108627796173096,-0.10203929990530014,0.030809573829174042,0.1311526596546173,-0.0965256318449974,-0.012604085728526115,-0.16382677853107452,0.05387761443853378,-0.5814862847328186,0.23480810225009918,2.6079819202423096,0.43186894059181213,1.2235980033874512,0.4183722734451294,-0.5100046992301941,0.44776803255081177,0.02684287168085575,0.10783687233924866,0.552666187286377,0.1786365956068039,0.3386061191558838,-0.32751065492630005,-0.06430305540561676,0.20132341980934143,0.3818233013153076,0.19985944032669067,-0.08858317881822586,-0.5406232476234436,-0.27881482243537903,0.1728658527135849,-0.18816345930099487,0.12434804439544678,-0.05089269578456879,-0.17121052742004395,0.8077922463417053,0.22263076901435852,0.751417875289917,0.07016037404537201,-0.2069968730211258,-0.030012788251042366,0.10260342806577682,0.04542529582977295,0.11917494237422943,0.13133403658866882,-0.053761862218379974,-0.17220912873744965,0.12857314944267273,-0.03525971248745918,0.08295818418264389,-0.1381000131368637,0.0236645694822073,0.09426841139793396,-0.018705187365412712,-0.06383071839809418,-0.0804140567779541,0.12700781226158142,0.29505640268325806,-1.9456201791763306,-0.3863019645214081,0.3966100513935089,1.9372811317443848,0.1086898222565651,-0.023827962577342987,-0.6007214188575745,-0.2895876169204712,0.2418973445892334,-1.2941988706588745,0.9347311854362488,-0.004811953753232956,-0.10728050023317337,0.03920817747712135,0.09650711715221405,0.05818921700119972,-0.00453756982460618,0.03201804682612419,-0.03573143854737282,0.00394057622179389,0.05574515834450722,-0.13365872204303741,0.08253512531518936]},"forgetHidden":{"rows":8,"columns":8,"weights":[-0.05152026563882828,0.0004052960721310228,-0.06881845742464066,-0.05571664497256279,0.0749751478433609,-0.025716159492731094,-0.11866676807403564,0.05127238482236862,-0.005087145604193211,-0.04061812907457352,-0.021134385839104652,-0.13250166177749634,0.10502355545759201,-0.06825470924377441,-0.09699510037899017,0.007441138848662376,-0.0865868628025055,-0.0027046664617955685,-0.5965556502342224,-0.24981902539730072,0.3343944549560547,-0.11776228994131088,-0.7276992201805115,-0.08696827292442322,-0.20529137551784515,-0.13543742895126343,-0.003162798937410116,-0.42097166180610657,0.0919724702835083,-0.05527506768703461,-0.6501281261444092,-0.05783199146389961,-0.0484716035425663,-0.006967192981392145,-0.25817835330963135,-0.21234352886676788,0.1411338746547699,-0.0027565101627260447,-0.48429492115974426,-0.10659222304821014,0.04849240183830261,-0.05600827559828758,0.023125650361180305,-0.0498763732612133,0.10496723651885986,-0.07276374846696854,-0.14809074997901917,-0.03636205568909645,-0.3541143536567688,-0.19918838143348694,-0.31734198331832886,-0.5938321352005005,0.3193448483943939,-0.19573038816452026,-1.824355125427246,-0.2379477620124817,-0.026303429156541824,0.03192749246954918,-0.005834618583321571,-0.1178952008485794,0.100074902176857,0.030581997707486153,-0.13870562613010406,-0.04196784645318985]},"forgetBias":{"rows":8,"columns":1,"weights":[0,0,0,0,0,0,0,0]},"outputMatrix":{"rows":8,"columns":12,"weights":[-0.1823715716600418,1.1879159212112427,-0.11762981116771698,0.6847501993179321,0.2745005786418915,-0.04500401392579079,0.5146210193634033,-1.2582463026046753,0.5524728298187256,0.5528406500816345,-1.6654318571090698,0.9976268410682678,1.3550728559494019,0.7056735754013062,0.04003316909074783,-0.2896868586540222,0.2120136022567749,-0.8681895732879639,0.25585854053497314,-0.261078417301178,-0.5381788015365601,-0.181668221950531,-1.081695318222046,-0.08315636962652206,-0.7106539011001587,-0.7690791487693787,-1.4197386503219604,0.2876115143299103,2.9573681354522705,2.230182647705078,0.7474707365036011,-0.8789957761764526,-0.08222689479589462,0.46761155128479004,-1.4973186254501343,2.3541259765625,-0.4111397862434387,-3.4577338695526123,-1.2261431217193604,-0.9423457980155945,-0.6441923975944519,1.2868016958236694,1.1507278680801392,0.8117711544036865,-0.3355602025985718,0.03636284917593002,-1.110052227973938,-1.5097485780715942,-2.037299394607544,1.4430094957351685,-0.4132084548473358,-0.20311033725738525,1.9259862899780273,0.365703821182251,1.336317777633667,1.0108941793441772,0.5048879384994507,0.23893916606903076,-1.6905537843704224,-0.8323173522949219,1.7122642993927002,0.8266803622245789,-0.3043504059314728,-0.5592664480209351,-0.1958324909210205,-1.2581182718276978,0.5492645502090454,-0.3430059850215912,0.12870578467845917,-0.19267018139362335,-0.40650999546051025,0.10206889361143112,-0.6534503698348999,0.15469777584075928,-0.4485197365283966,-1.8535035848617554,-0.02275707758963108,0.9296878576278687,-1.1903798580169678,0.055069051682949066,2.486297130584717,0.09624230861663818,0.9241854548454285,-0.2827911972999573,0.7878371477127075,1.668060064315796,-1.2341821193695068,-0.45330679416656494,-0.8721113204956055,-0.34589308500289917,0.863779604434967,0.16571927070617676,0.5605436563491821,-0.1401931643486023,-0.9810245037078857,-1.2910523414611816]},"outputHidden":{"rows":8,"columns":8,"weights":[-0.5867373943328857,0.04868011921644211,-0.3080315589904785,-0.09608879685401917,-0.008241814561188221,-0.00891655869781971,-1.0045591592788696,-0.12185003608465195,-0.07612466812133789,-0.020659269765019417,0.08071164041757584,-0.32565078139305115,-0.1693439781665802,0.03878366947174072,-0.850900411605835,0.005844040773808956,-0.5510931015014648,-0.3157140612602234,-1.135648250579834,-1.4323484897613525,0.5990849733352661,-0.45744186639785767,-0.9327040910720825,-0.4625702500343323,-0.6801793575286865,-0.2981663644313812,0.705293595790863,-1.30217707157135,-0.1928015500307083,-0.24904094636440277,-3.8657867908477783,-0.3119233548641205,-0.6853548288345337,-0.2966940402984619,-0.3439246714115143,-1.2724462747573853,0.5406172871589661,-0.3273468017578125,-2.14205002784729,-0.34871888160705566,-0.03900275379419327,0.029047081246972084,0.1491597443819046,-0.28704264760017395,-0.1775994598865509,0.0657433420419693,-0.9061907529830933,-0.09928759932518005,-2.475600242614746,-0.9952067732810974,1.57660710811615,-3.290091037750244,-0.8640091419219971,-0.8319898247718811,-9.783917427062988,-0.41908907890319824,-0.15642766654491425,-0.012337958440184593,0.15517158806324005,-0.31772518157958984,-0.0650876834988594,0.1155376061797142,-1.2196241617202759,-0.08082693815231323]},"outputBias":{"rows":8,"columns":1,"weights":[-3.6915242671966553,-3.657731771469116,-2.6801834106445312,-3.8511404991149902,-5.004993915557861,-3.569406270980835,-3.7713918685913086,-5.178978443145752]},"cellActivationMatrix":{"rows":8,"columns":12,"weights":[-2.011371374130249,-0.39514830708503723,7.753162384033203,0.774572491645813,2.21795916557312,-3.079800844192505,-5.630359172821045,8.569100379943848,0.06229887530207634,-1.5195014476776123,5.302214622497559,-1.2267686128616333,-2.7317495346069336,2.439323663711548,-3.002702236175537,0.31617218255996704,0.04415819048881531,1.5261647701263428,-4.566457271575928,3.459383010864258,-0.1305231750011444,-1.0984857082366943,3.2391464710235596,-2.053948163986206,-7.401299953460693,5.210709571838379,3.6759421825408936,0.17533494532108307,4.524907112121582,4.404202938079834,-0.4996543824672699,3.5160348415374756,1.2632081508636475,-1.3867442607879639,5.710012912750244,5.139859199523926,-6.15525484085083,6.014264106750488,-0.3094540238380432,-0.18555213510990143,3.4697670936584473,-0.4920866787433624,-2.526855945587158,2.4264256954193115,-0.03821980208158493,-1.3429428339004517,2.8894243240356445,-1.3219038248062134,2.3550710678100586,-3.687661647796631,-1.2610692977905273,0.38407284021377563,-2.2364304065704346,-0.8367222547531128,0.5480663180351257,-1.5200722217559814,-0.5136510729789734,1.1392157077789307,-2.858456611633301,-1.3492339849472046,-3.2720401287078857,2.024376630783081,-2.1441614627838135,0.1984729766845703,-0.3836976885795593,0.9534118175506592,-3.7224912643432617,3.3670268058776855,0.22191306948661804,-1.0971869230270386,3.473299980163574,-2.262117862701416,-3.853562355041504,6.2506890296936035,-0.3539310395717621,1.593634009361267,2.7699873447418213,1.1795332431793213,-3.75351619720459,5.632533073425293,0.7321144938468933,-2.590520143508911,0.5871533155441284,-7.196878910064697,-1.9540140628814697,2.714637279510498,3.3797757625579834,-0.02558121643960476,-0.8865599036216736,3.42431378364563,-1.190608024597168,3.9410948753356934,0.10452645272016525,-1.0598232746124268,5.2966156005859375,-2.0015158653259277]},"cellActivationHidden":{"rows":8,"columns":8,"weights":[-1.3779163360595703,-0.7707093358039856,0.5220609307289124,-0.6278314590454102,-0.9573895335197449,-0.6845396757125854,-1.6685889959335327,-0.6170094013214111,-0.3295709788799286,-0.6618325710296631,0.8874775767326355,-0.1962244063615799,-0.9325664639472961,-0.6532760858535767,-0.6888129115104675,-0.6723431944847107,0.8805521130561829,0.6227286458015442,-0.7842711806297302,0.3499443829059601,0.217686265707016,0.764678418636322,-0.4291168749332428,0.664570689201355,-0.3808954954147339,-0.7741677761077881,1.059952735900879,-0.3914288580417633,-1.0887166261672974,-0.8227766752243042,-1.2172555923461914,-0.7091557383537292,-0.5485920906066895,-0.5913674235343933,0.27089112997055054,-0.43780604004859924,-0.31447771191596985,-0.7139428853988647,-0.44125431776046753,-0.7186175584793091,-0.3740502595901489,-0.6525925397872925,0.8065056800842285,-0.3091893792152405,-0.8723042607307434,-0.6653558611869812,-0.5880560874938965,-0.5195095539093018,0.0050615896470844746,-0.24458010494709015,0.3955225646495819,-0.19056233763694763,-0.6088789105415344,-0.25367602705955505,-0.5146663784980774,-0.06187998130917549,-0.6655179262161255,-0.5521574020385742,0.86658775806427,-0.3338242173194885,-0.9674901366233826,-0.6675082445144653,-0.5332258939743042,-0.6280798316001892]},"cellActivationBias":{"rows":8,"columns":1,"weights":[1.731985092163086,-0.8032158613204956,9.155008316040039,0.050000689923763275,-3.333935260772705,-0.6776930689811707,-0.5270276069641113,-0.23223912715911865]}}],"outputConnector":{"rows":1,"columns":8,"weights":[1.585920810699463,3.450127601623535,2.2756803035736084,2.354595422744751,-2.5797693729400635,3.3689353466033936,2.164916515350342,3.5952279567718506]},"output":{"rows":1,"columns":1,"weights":[0.16396670043468475]},"inputLookup":null,"inputLookupLength":0,"outputLookup":null,"outputLookupLength":0}