{"type":"zr","options":{"inputSize":1,"inputRange":0,"hiddenLayers":[12,8],"outputSize":1,"decayRate":0.999,"smoothEps":1e-8,"regc":0.000001,"clipval":5,"maxPredictionLength":100,"dataFormatter":{"indexTable":{},"characterTable":{},"characters":[],"specialIndexes":[]}},"hiddenLayers":[{"inputMatrix":{"rows":12,"columns":1,"weights":[1.6083581447601318,-1.475245475769043,4.675770282745361,-4.124011516571045,-2.4158146381378174,3.3812220096588135,-9.096842765808105,-1.797940731048584,2.450284481048584,5.490935802459717,-4.089926719665527,-4.670242786407471]},"inputHidden":{"rows":12,"columns":12,"weights":[0.23139850795269012,3.3506579399108887,-1.7120705842971802,6.390316963195801,0.07314687967300415,0.25697797536849976,4.387636184692383,0.7175645232200623,-1.8010059595108032,-2.852098226547241,-3.693272113800049,4.55211067199707,-7.978458881378174,1.9373579025268555,0.8010551929473877,9.120402336120605,0.07924937456846237,6.968523979187012,-1.1498959064483643,0.013896872289478779,2.1255085468292236,-0.42403438687324524,0.6800509691238403,6.66568660736084,-1.2661958932876587,-4.966826438903809,0.09930402040481567,-4.403814315795898,0.2539806067943573,5.1907830238342285,-0.4876934289932251,0.3186800479888916,-1.5124785900115967,1.872893214225769,-2.9648516178131104,1.2539117336273193,-1.790677785873413,5.818867206573486,-4.628795623779297,0.9058377146720886,0.28217554092407227,-4.699214458465576,-0.0022125826217234135,-0.19375213980674744,1.8823521137237549,1.3012337684631348,-4.453529357910156,-2.1311144828796387,0.6183183789253235,-1.0265164375305176,0.31453126668930054,2.146242141723633,0.775513231754303,-0.7908425331115723,3.1828126907348633,0.3714495897293091,0.26917892694473267,-0.5192650556564331,-1.0795998573303223,0.02611292526125908,3.2846872806549072,-4.896175861358643,-5.278364181518555,7.243551254272461,0.6612539291381836,-1.922043800354004,2.476970672607422,0.4441828429698944,9.588836669921875,2.6875827312469482,4.233569622039795,4.467709064483643,-0.8847102522850037,-4.532309532165527,1.192783236503601,-6.376291275024414,-0.9602826237678528,-0.8001753687858582,4.461660385131836,-0.8571441769599915,3.2608745098114014,-12.217766761779785,2.791621208190918,-1.6345020532608032,-0.4010743796825409,0.5704855918884277,0.15928810834884644,-1.0078024864196777,0.3763892352581024,-0.11886139214038849,0.58343106508255,0.21932610869407654,-0.0007303279708139598,-1.129332184791565,-0.05489258095622063,-0.34369611740112305,-0.07497158646583557,0.496180921792984,2.240736246109009,-6.802534580230713,0.7063966393470764,1.8431352376937866,-1.3040120601654053,-0.23464779555797577,-1.7352269887924194,4.568950176239014,-0.600098192691803,-1.554524302482605,2.4967877864837646,-1.00287926197052,8.714311599731445,-3.8574159145355225,-0.021779317408800125,-5.85698938369751,-0.18234121799468994,1.6527631282806396,-2.4955801963806152,1.0437597036361694,1.0612317323684692,1.9558128118515015,0.17241674661636353,-0.9725745320320129,-0.529829204082489,-4.62679386138916,-0.5406792163848877,2.156125783920288,0.9506665468215942,-0.20951968431472778,1.3100924491882324,-4.532480716705322,2.3276009559631348,0.4507974088191986,2.6128201484680176,2.9362430572509766,-7.6051344871521,-5.779614448547363,0.19633767008781433,-2.802715301513672,-4.894906044006348,-0.28169742226600647,1.7308601140975952,2.0022873878479004,4.169749736785889,-4.042269706726074]},"inputBias":{"rows":12,"columns":1,"weights":[-4.0415568351745605,-2.1349642276763916,-3.7607054710388184,1.8030409812927246,-2.3397321701049805,-3.5195226669311523,9.165458679199219,-1.9009737968444824,-3.00646710395813,2.2024247646331787,-1.0023291110992432,-2.5395283699035645]},"forgetMatrix":{"rows":12,"columns":1,"weights":[0.8247870802879333,0.7514177560806274,0.5163048505783081,-4.728519439697266,-0.13784413039684296,-4.005159854888916,-4.624074935913086,-0.18218310177326202,1.7216626405715942,2.234562873840332,-1.3714077472686768,-0.9328249096870422]},"forgetHidden":{"rows":12,"columns":12,"weights":[-0.7327221632003784,-0.374883770942688,0.27324363589286804,-0.8251598477363586,0.13159407675266266,-1.4408785104751587,0.8056080341339111,0.25290611386299133,0.05538695305585861,2.8773725032806396,-0.1156511977314949,0.00549819553270936,-2.999854326248169,2.6116690635681152,0.5419299006462097,-3.3619697093963623,0.011916963383555412,1.6797246932983398,0.3466261029243469,0.07424904406070709,1.8672206401824951,-0.14535236358642578,-0.046499889343976974,0.41132810711860657,0.13288390636444092,3.0460071563720703,0.3708038926124573,10.821139335632324,0.018008587881922722,-0.5536332130432129,0.48149770498275757,0.16349710524082184,2.490471839904785,0.6078804731369019,0.05527148395776749,-2.2204535007476807,2.9583427906036377,-4.513731956481934,0.011488419026136398,1.4757410287857056,0.1423831731081009,-1.3442976474761963,-3.405367612838745,-0.01757415570318699,-1.0135455131530762,-0.664561927318573,0.8301295638084412,2.43061900138855,-0.2653723657131195,-0.11121512204408646,0.09927964210510254,1.0668269395828247,0.0901002511382103,0.6015880107879639,-0.215860053896904,0.18297520279884338,0.11792953312397003,-0.07056936621665955,0.018284140154719353,0.10547515749931335,-0.8991023898124695,-1.1198650598526,0.2562175393104553,-6.664444446563721,-0.4616037607192993,3.223695755004883,-1.5711203813552856,0.024395398795604706,-1.387704849243164,-2.4319088459014893,1.4305388927459717,-0.8111752271652222,2.629730701446533,2.637139320373535,-1.9099746942520142,7.95054817199707,0.5479217767715454,-0.9118874073028564,2.454582929611206,0.782597541809082,2.8767600059509277,0.7284545302391052,-4.293967247009277,-3.196604013442993,0.15691474080085754,-0.09107789397239685,-0.03706074506044388,0.056678932160139084,0.07961038500070572,-0.011071031913161278,0.036040060222148895,0.14436322450637817,-0.024060849100351334,-0.12086817622184753,0.022483116015791893,0.016434773802757263,-0.2882380485534668,2.486922025680542,1.5938235521316528,0.6303404569625854,-0.18931281566619873,0.047770075500011444,0.28735649585723877,-0.1473437398672104,-2.832559823989868,3.259768009185791,0.5658578276634216,1.3914464712142944,0.5058399438858032,4.99447774887085,-6.321345806121826,-3.162043571472168,0.4035750925540924,-7.477067470550537,-0.24926625192165375,0.1370232254266739,-1.4721176624298096,-3.1047253608703613,1.492004156112671,5.457727909088135,0.036117762327194214,0.34532245993614197,0.33037346601486206,0.2732844948768616,-0.14092156291007996,0.7463447451591492,0.3502535820007324,-0.0628594234585762,0.5069399476051331,-1.6818517446517944,-0.49886783957481384,-0.40100088715553284,-0.01499094720929861,0.6380640268325806,2.918841600418091,-0.6666867733001709,-0.007255746517330408,0.15836293995380402,0.17713646590709686,0.007956162095069885,-1.7480727434158325,-0.8138864636421204,0.14679475128650665,0.44066718220710754]},"forgetBias":{"rows":12,"columns":1,"weights":[0,0,0,0,0,0,0,0,0,0,0,0]},"outputMatrix":{"rows":12,"columns":1,"weights":[2.137373447418213,-0.6179676055908203,5.918268203735352,-5.735932350158691,-1.9707367420196533,4.6119184494018555,-4.5616679191589355,-1.647031307220459,2.7850799560546875,6.211136341094971,-4.607770919799805,-4.772188663482666]},"outputHidden":{"rows":12,"columns":12,"weights":[2.2883105278015137,-1.4864288568496704,-0.8148429989814758,5.646615982055664,-0.347817987203598,-4.050073623657227,3.275254011154175,0.6980091333389282,-2.4492664337158203,1.1394201517105103,-4.201653003692627,2.7510488033294678,-5.23787784576416,4.882548809051514,3.1049981117248535,1.1285287141799927,-0.9741802215576172,4.874518871307373,-2.4278364181518555,0.21390637755393982,-3.068031072616577,0.5469746589660645,0.0025784363970160484,3.4882328510284424,4.136897563934326,3.1635873317718506,-0.4820590913295746,3.421434164047241,0.612066388130188,0.8172807693481445,-3.6004996299743652,0.3753581941127777,-0.07649120688438416,3.932030439376831,-3.4745357036590576,5.478774547576904,1.2346429824829102,0.5030766725540161,0.3777589201927185,0.8121917247772217,1.5254937410354614,-3.433483839035034,-2.5930771827697754,0.4669075608253479,1.7353019714355469,5.567882061004639,-6.122483253479004,0.02119883894920349,-0.35792428255081177,-0.7233828902244568,0.3898357152938843,3.3567683696746826,0.46970248222351074,0.37812313437461853,3.050710678100586,0.49022409319877625,0.4257761836051941,-0.4938659071922302,-0.8886157870292664,0.10038240253925323,-3.6230368614196777,-3.2815141677856445,5.2610015869140625,3.285271167755127,-0.23677539825439453,1.8694010972976685,4.235310077667236,0.7396140098571777,0.5194465517997742,2.5479204654693604,-1.087293267250061,5.280101776123047,-0.32478034496307373,-4.45876407623291,-0.05332799628376961,-6.07267951965332,0.026359638199210167,-0.981685996055603,-6.696292877197266,0.42894282937049866,-1.5418424606323242,-6.714282989501953,3.419473648071289,-2.168851852416992,-0.4455297589302063,0.39195284247398376,0.1811598390340805,-0.9815111756324768,0.32565411925315857,-0.042018771171569824,0.7897989749908447,0.3335739076137543,0.05154264345765114,-1.3620717525482178,0.06299376487731934,-0.31781983375549316,-2.961601495742798,4.703736782073975,-3.676762342453003,-0.8088364601135254,-0.9682320356369019,7.020227432250977,0.351437509059906,-0.28250652551651,-0.7209317684173584,2.4076101779937744,0.8524258732795715,-1.2336146831512451,-2.160930871963501,-2.7553608417510986,-1.4020988941192627,-6.1053385734558105,1.74286949634552,2.05885910987854,-2.013760805130005,1.8859366178512573,-8.000395774841309,2.495302200317383,-1.2030563354492188,1.3132829666137695,0.028360888361930847,-0.3041609823703766,-0.6259410977363586,-4.085702419281006,-0.8975487947463989,2.8039605617523193,0.6971395015716553,-0.37153977155685425,1.668932318687439,-4.5921478271484375,1.6858927011489868,0.743647575378418,3.1461775302886963,1.6251211166381836,-1.9051162004470825,-5.544918060302734,0.2774777412414551,-1.152038812637329,-4.3571457862854,-0.3214245140552521,-1.6501246690750122,1.0731515884399414,4.54298734664917,-5.080436706542969]},"outputBias":{"rows":12,"columns":1,"weights":[-4.020112037658691,-2.160905599594116,-4.030587196350098,2.2887699604034424,-2.3282454013824463,-3.47353458404541,8.840121269226074,-1.9079930782318115,-4.2190351486206055,2.2633583545684814,-1.6639496088027954,-2.5202620029449463]},"cellActivationMatrix":{"rows":12,"columns":1,"weights":[-2.4386346340179443,2.7313296794891357,-2.2521133422851562,-8.86277961730957,-0.26979559659957886,-0.598921000957489,-5.465829372406006,-1.8747793436050415,0.16906987130641937,11.681507110595703,-2.0555646419525146,-1.2474836111068726]},"cellActivationHidden":{"rows":12,"columns":12,"weights":[0.04939337819814682,-1.3308229446411133,-0.29752442240715027,-4.842559814453125,-0.14933180809020996,1.6039512157440186,-3.079446792602539,-0.2847151458263397,0.23078690469264984,-1.9961943626403809,0.9156493544578552,-0.3012864887714386,0.729863166809082,-0.5774194598197937,-1.0697245597839355,3.2562594413757324,0.10875702649354935,1.1641203165054321,1.9032706022262573,0.3607805073261261,0.5548979043960571,6.064456939697266,0.5480875968933105,0.8616462349891663,-0.23868265748023987,-6.364871501922607,2.7708232402801514,-15.322893142700195,-0.09648619592189789,-0.3719807267189026,-0.8136298656463623,0.02027914673089981,-3.9608049392700195,-3.2853329181671143,-4.447364330291748,1.9490803480148315,1.5241127014160156,0.06418658047914505,0.6791523694992065,-0.9363406300544739,0.22778476774692535,-0.11279459297657013,-0.29489627480506897,-1.1894692182540894,0.5249260663986206,0.06115276739001274,0.45011845231056213,1.9441879987716675,-1.0969480276107788,-0.5784128904342651,0.23728340864181519,-0.5377493500709534,-0.13427460193634033,1.2389854192733765,-2.9652292728424072,-0.37537437677383423,-0.1600843071937561,1.7223016023635864,-0.37570473551750183,-0.40831825137138367,-9.444474220275879,-3.3056790828704834,-2.902005195617676,5.7497334480285645,0.9269716739654541,-1.1689810752868652,2.031987428665161,-0.35135528445243835,3.4359524250030518,-3.1708824634552,-0.0655921995639801,-2.8197968006134033,-1.5046240091323853,-1.8015531301498413,1.3140007257461548,-2.951228618621826,0.35916537046432495,-0.09484311193227768,-0.052047595381736755,-0.08034676313400269,1.7334411144256592,-0.8939701318740845,0.635809063911438,-1.0431292057037354,0.24276629090309143,0.25426527857780457,0.051271405071020126,-2.0811960697174072,-0.08230703324079514,-0.35973310470581055,-2.1655189990997314,-0.3482971787452698,-0.9784872531890869,-2.309695243835449,0.03503556549549103,-0.2502042055130005,4.917222023010254,-4.399227619171143,-1.9872337579727173,6.2980804443359375,0.7542150020599365,-6.5837907791137695,3.6716928482055664,0.8323063850402832,-0.1470627337694168,4.009060859680176,-2.6096835136413574,-1.4013739824295044,0.1826862394809723,0.3555806875228882,3.8427000045776367,0.43694785237312317,-0.7463929057121277,-0.015529346652328968,-0.08453310281038284,1.6295702457427979,0.3850308656692505,-0.919157862663269,-1.355198621749878,2.214071035385132,1.4944649934768677,0.902431070804596,0.5281264185905457,4.848721027374268,-0.26793429255485535,3.583690881729126,-0.5519922375679016,-0.11311943829059601,0.98492431640625,-1.084926724433899,1.709078073501587,0.5627233982086182,2.0289390087127686,2.470313787460327,-3.351583480834961,-2.6315572261810303,0.5362792611122131,-3.01381778717041,5.704477310180664,0.7633973956108093,-1.628293514251709,2.1165342330932617,-2.685354709625244,-2.930558204650879]},"cellActivationBias":{"rows":12,"columns":1,"weights":[0.8830357789993286,1.4035441875457764,2.450268507003784,2.405320167541504,0.7393556237220764,1.278412938117981,1.5546773672103882,1.479798674583435,-1.452019214630127,-0.494778037071228,-2.1055917739868164,1.0057041645050049]}},{"inputMatrix":{"rows":8,"columns":12,"weights":[2.203032970428467,-1.722322702407837,-0.5990683436393738,0.25294381380081177,0.5160362124443054,-2.6734721660614014,0.5488809943199158,0.6374892592430115,1.6902880668640137,-6.650435924530029,-0.731127142906189,0.9737261533737183,-1.8149306774139404,1.9163898229599,-0.4033195972442627,0.9054835438728333,-1.080655574798584,1.355704426765442,2.096198797225952,-0.5507119297981262,-1.4476137161254883,6.087213516235352,-0.8859874606132507,0.14868387579917908,1.1914923191070557,0.9492485523223877,0.4879964292049408,-0.47357651591300964,-0.4625147879123688,-0.9149513244628906,-0.8833017945289612,-0.38918113708496094,0.3846645653247833,-3.106515407562256,0.1965019851922989,-0.1835998147726059,2.1548027992248535,-2.354952096939087,1.5666805505752563,-1.6622917652130127,-0.3340844511985779,-1.0887612104415894,0.9769255518913269,-0.5760888457298279,-1.7033554315567017,-1.0541305541992188,2.0775539875030518,-0.5096843242645264,-1.0902206897735596,-0.19296574592590332,-0.20366396009922028,-2.2985103130340576,0.48386356234550476,-0.11859600245952606,-0.09851253777742386,0.18255791068077087,0.0319053940474987,-3.4871695041656494,0.6924657821655273,0.5868193507194519,-1.9046099185943604,1.912747859954834,3.017971992492676,-1.7010399103164673,-0.8916398286819458,-3.5744543075561523,-1.2054688930511475,-1.000389575958252,2.543285846710205,-1.094967246055603,2.066056251525879,0.7378556132316589,0.32244157791137695,1.409062385559082,4.077688217163086,-3.3852546215057373,0.36442410945892334,0.18442420661449432,1.6450107097625732,0.464284747838974,2.321662187576294,-0.9867401123046875,2.064042091369629,0.15326164662837982,0.00880061648786068,-1.2107672691345215,0.8761987686157227,0.2754417955875397,0.5253778100013733,0.3691768944263458,-1.0573928356170654,0.19133491814136505,1.8419915437698364,-5.166303634643555,-0.31290605664253235,0.35754257440567017]},"inputHidden":{"rows":8,"columns":8,"weights":[1.0625553131103516,1.3765285015106201,0.9699321389198303,1.2304534912109375,-0.3285941183567047,2.0842840671539307,-1.0652927160263062,0.4011121094226837,-2.321944236755371,-4.773015022277832,-1.4672776460647583,-2.622473955154419,-0.30308297276496887,1.4921835660934448,2.904076337814331,0.512155294418335,0.8696321249008179,1.9397727251052856,0.3012460172176361,0.5550181269645691,1.184578776359558,-0.8306782245635986,-0.9529483318328857,-1.2717154026031494,1.2943928241729736,-0.8153186440467834,1.2669472694396973,4.096103668212891,1.6256344318389893,0.10943599045276642,-0.3139466643333435,-2.5827598571777344,0.9961242079734802,0.07990119606256485,0.14304573833942413,0.7332420945167542,0.4067971110343933,-1.035659670829773,-0.6464005708694458,-0.15119850635528564,0.5136734843254089,3.0699856281280518,-0.5648507475852966,6.186234474182129,-0.12134227156639099,2.171632766723633,1.1285291910171509,1.0042842626571655,0.9205806255340576,2.4412927627563477,1.2851487398147583,2.7617740631103516,-0.1342494636774063,5.568281173706055,-1.957876443862915,0.5542160868644714,0.3375205099582672,1.184928059577942,-0.05600477010011673,1.793016791343689,0.11039053648710251,-0.16794930398464203,0.11244256794452667,0.6427314281463623]},"inputBias":{"rows":8,"columns":1,"weights":[-0.8347788453102112,4.103176116943359,-2.7334606647491455,-3.59629487991333,-2.237138509750366,-1.537060260772705,-3.1399242877960205,-2.0624330043792725]},"forgetMatrix":{"rows":8,"columns":12,"weights":[0.6681336760520935,-0.48487338423728943,0.14947976171970367,0.1305241733789444,0.5170133709907532,-0.5271292328834534,-1.0587579011917114,0.5579023957252502,0.545985221862793,-0.04245540127158165,-0.6649704575538635,0.1574009507894516,8.004461288452148,-13.676284790039062,-7.9065070152282715,-1.2607048749923706,-0.11077812314033508,-2.6358540058135986,-1.5315301418304443,-0.3573738932609558,3.0627989768981934,0.9423373341560364,-1.3285768032073975,2.330016613006592,-0.0479821041226387,0.1992514282464981,-0.06710293143987656,0.17939092218875885,-0.15277203917503357,-0.03346901386976242,-0.5087624788284302,-0.0644850954413414,0.19317488372325897,-0.11893108487129211,-0.009627625346183777,-0.15406547486782074,0.09399180859327316,1.1602332592010498,-0.40924742817878723,0.5399620532989502,-0.08829885721206665,-0.008635081350803375,-1.7160142660140991,0.03312564641237259,-0.7644582986831665,3.034266233444214,-0.19696322083473206,0.1692316085100174,0.15574488043785095,-0.0863465741276741,-0.015050629153847694,-0.275470495223999,0.015289213508367538,0.022245317697525024,-0.07225634157657623,0.045184969902038574,0.12672263383865356,-0.17231260240077972,-0.08099407702684402,-0.03629300370812416,2.0169427394866943,-2.660943031311035,1.4724808931350708,4.371699333190918,0.10237513482570648,-0.2268788367509842,0.13867133855819702,0.07515090703964233,-0.8473312258720398,4.562727928161621,0.468246191740036,0.22763916850090027,0.647739827632904,-0.717176079750061,-0.011873668059706688,-1.0548888444900513,0.599773645401001,-0.5880429148674011,-0.14703989028930664,0.49590539932250977,0.5275648236274719,0.04437929391860962,-0.9043238162994385,-0.4138527810573578,0.25195154547691345,0.23561589419841766,0.03342796117067337,-0.22760918736457825,0.1358323097229004,-0.12761542201042175,-0.6290114521980286,0.18914690613746643,0.1166323572397232,0.37361791729927063,-0.075623519718647,-0.12699191272258759]},"forgetHidden":{"rows":8,"columns":8,"weights":[0.6404503583908081,1.12135910987854,0.6343024969100952,0.8063163161277771,-0.33110612630844116,0.3915773034095764,-0.6071844100952148,0.3568873405456543,1.2035655975341797,2.011146068572998,0.4865778386592865,0.2555537819862366,1.2823777198791504,-16.12004852294922,-0.26984816789627075,-2.444209098815918,0.1033356711268425,0.39577367901802063,0.03601245582103729,0.018696889281272888,0.20843985676765442,-0.27215221524238586,-0.07385936379432678,-0.23858681321144104,0.26095324754714966,-1.917464017868042,-0.02198174223303795,0.026575220748782158,0.16334521770477295,-0.22430138289928436,-0.23023301362991333,-0.13781584799289703,0.30536559224128723,0.31035423278808594,0.03233567252755165,0.0981205627322197,0.07370010018348694,-0.03233829140663147,-0.2233121395111084,0.009889817796647549,0.22444069385528564,-2.674948215484619,0.018996860831975937,0.16382747888565063,0.08370482176542282,-0.3719044625759125,-0.5241857767105103,0.01991126500070095,0.6819376349449158,2.0851473808288574,0.716427206993103,0.8032020926475525,-0.3790443539619446,0.13592767715454102,-0.716891348361969,0.3854846954345703,0.364692360162735,-0.07808145135641098,0.015683822333812714,0.06399986892938614,-0.10106232017278671,0.05468070134520531,-0.4321276545524597,0.3026462495326996]},"forgetBias":{"rows":8,"columns":1,"weights":[0,0,0,0,0,0,0,0]},"outputMatrix":{"rows":8,"columns":12,"weights":[2.721604824066162,-2.087045192718506,-0.5806685090065002,0.691155731678009,0.5527729392051697,-2.909792184829712,0.6977000832557678,0.593866765499115,1.7222200632095337,-4.229691982269287,-1.1538029909133911,1.137040376663208,-0.30793556571006775,2.229620933532715,1.1297192573547363,-0.19600842893123627,-3.3123135566711426,1.0729855298995972,-0.6209632754325867,-1.3279088735580444,-1.2710864543914795,2.5614523887634277,-1.527658224105835,1.5078153610229492,1.3677880764007568,0.8769518733024597,0.46199026703834534,-0.6155300736427307,-0.3855656087398529,-1.1033546924591064,-0.9070615172386169,-0.30574461817741394,0.32582658529281616,-3.2100658416748047,-0.03612682595849037,-0.030896596610546112,0.6820793747901917,-2.8271284103393555,-1.924289345741272,-6.791938781738281,-0.20682404935359955,6.84511137008667,5.669959545135498,-0.36841315031051636,-2.7764086723327637,1.7986172437667847,-1.0130332708358765,1.6623104810714722,-0.8352481722831726,-0.4700872600078583,-0.004150408785790205,-2.369150400161743,0.610102653503418,-0.4805091321468353,0.07480376958847046,0.17508849501609802,0.11806248128414154,-3.605829954147339,0.5360133647918701,0.7116416096687317,0.913955569267273,3.1991360187530518,3.1442196369171143,-0.21308447420597076,0.3851448595523834,0.3387768268585205,-1.3619356155395508,-0.4374060332775116,5.926535129547119,3.43575382232666,1.1289377212524414,-8.813030242919922,0.2409624457359314,0.3245786726474762,3.5911829471588135,-1.5802239179611206,0.513577401638031,-0.36745062470436096,3.5214791297912598,0.5619759559631348,1.6987947225570679,-0.7385612726211548,0.7879141569137573,-1.1634339094161987,-0.07406232506036758,-0.7782723307609558,0.7177959084510803,0.5503008365631104,0.438308447599411,0.29981914162635803,-1.9269402027130127,0.2697550654411316,2.0283963680267334,-4.705740928649902,-0.4495716989040375,0.15008024871349335]},"outputHidden":{"rows":8,"columns":8,"weights":[1.200430989265442,1.9415218830108643,1.045835256576538,1.2841264009475708,-0.33228248357772827,1.9147651195526123,-1.1168347597122192,0.42198097705841064,0.2572515904903412,0.9018045663833618,-1.1647204160690308,4.246881484985352,1.510452151298523,-3.6692678928375244,3.8340163230895996,-3.7760884761810303,1.0273000001907349,2.152648687362671,0.41808900237083435,0.641730010509491,1.1780089139938354,-0.9823697209358215,-1.0859143733978271,-1.2667019367218018,1.1550540924072266,-1.8094745874404907,1.2308722734451294,0.9636304378509521,1.5455944538116455,-7.293776035308838,-0.1219712421298027,-2.2774858474731445,1.1865243911743164,0.4814159870147705,0.14305391907691956,0.8217592239379883,0.5163207650184631,-1.261576533317566,-0.7476255893707275,-0.32689037919044495,0.6872866749763489,-2.1707851886749268,-0.27904683351516724,4.397003173828125,-0.044199611991643906,3.371473789215088,-1.5052025318145752,0.649082362651825,0.810588538646698,2.722166061401367,1.3574392795562744,2.3296332359313965,-0.20009393990039825,5.2146220207214355,-1.7057838439941406,0.5512938499450684,0.28083640336990356,0.6726301312446594,-0.023545702919363976,1.9523475170135498,-0.011446071788668633,-0.24374045431613922,0.1412290334701538,0.8525123596191406]},"outputBias":{"rows":8,"columns":1,"weights":[-0.1609591394662857,0.18671400845050812,-2.717841625213623,-2.6087231636047363,-2.2778992652893066,1.2335985898971558,-1.7091734409332275,-2.182446241378784]},"cellActivationMatrix":{"rows":8,"columns":12,"weights":[-0.4538514316082001,-1.0613727569580078,0.3034017086029053,-3.9702000617980957,-0.08933296799659729,-1.2116429805755615,-1.1643929481506348,-0.2925127148628235,0.16123539209365845,-0.21028730273246765,-0.2014879286289215,-0.3842048943042755,0.6322495937347412,-2.5014548301696777,0.578900158405304,0.11625088006258011,0.936890721321106,-0.8627917170524597,-3.5974180698394775,0.22301273047924042,1.1979886293411255,-4.2602152824401855,1.8394120931625366,0.3138704299926758,0.5426429510116577,-1.2954217195510864,0.849890410900116,-2.5594844818115234,0.8975287675857544,-1.7581418752670288,-0.4632084369659424,0.8310796022415161,-0.41790857911109924,-0.9064183235168457,-1.3262089490890503,1.0933003425598145,0.5428628921508789,0.6011698842048645,4.109601974487305,-4.735830783843994,0.8155388236045837,-2.8382480144500732,-1.3361570835113525,0.6511181592941284,2.569751739501953,-3.044093132019043,-2.6667566299438477,0.465768039226532,0.2572096288204193,-0.5316898226737976,-0.2555752992630005,-0.6835657358169556,0.3418557345867157,-0.42466241121292114,-0.041902195662260056,0.28245073556900024,1.0652356147766113,-1.8048746585845947,-0.22361497581005096,0.48304611444473267,4.435941219329834,0.4758724570274353,-7.647933483123779,-4.01201868057251,-0.6427581906318665,4.160758972167969,-2.138201951980591,-0.3897777795791626,1.38724946975708,0.5515264868736267,0.5062037110328674,-1.0007888078689575,2.332904577255249,0.46662092208862305,-1.8384093046188354,6.243309497833252,0.1937413513660431,-3.3869316577911377,5.18911075592041,0.24380388855934143,4.644480228424072,1.480016827583313,1.4969979524612427,9.39986801147461,-0.1827133744955063,0.8074795603752136,0.10433490574359894,1.1596906185150146,-0.4191402494907379,0.5417242050170898,-0.2175655961036682,-0.3050779700279236,-0.9983199238777161,1.7694238424301147,0.39635491371154785,-0.9113186001777649]},"cellActivationHidden":{"rows":8,"columns":8,"weights":[-0.16428324580192566,3.2795543670654297,-0.7209165096282959,-0.25718191266059875,1.0196964740753174,-1.4805214405059814,0.21499817073345184,-0.9210391640663147,1.5492231845855713,4.238487720489502,0.3301175534725189,1.020924687385559,0.5100420117378235,-1.4901851415634155,-1.4576033353805542,-0.46732693910598755,1.290143609046936,2.202423334121704,-0.038133058696985245,0.3084647059440613,-0.1117430180311203,-0.07997743040323257,-1.390736699104309,0.37843844294548035,1.0974520444869995,7.282258987426758,-0.11721017211675644,1.1431306600570679,-0.3420117199420929,-5.549093246459961,-1.3830945491790771,0.9889345169067383,0.15657992660999298,3.1276590824127197,1.7216355800628662,1.3290706872940063,-0.9341572523117065,0.5939797759056091,-0.05581945553421974,0.744108259677887,0.9555870890617371,-2.4483182430267334,-1.8483572006225586,1.6077930927276611,0.9758664965629578,-8.423996925354004,-3.0560109615325928,-0.5433230400085449,0.652256190776825,-4.99172830581665,0.5932969450950623,-0.07747399061918259,-0.9049215912818909,2.6582298278808594,-0.44423413276672363,0.662365198135376,0.05164783075451851,-3.589014768600464,-1.6210763454437256,-1.3275511264801025,1.0345362424850464,-0.6382812261581421,0.08914268761873245,-0.7649126648902893]},"cellActivationBias":{"rows":8,"columns":1,"weights":[0.7502525448799133,-1.6596142053604126,1.2329504489898682,3.911755084991455,-0.600825309753418,1.274156093597412,-1.1141573190689087,1.114919900894165]}}],"outputConnector":{"rows":1,"columns":8,"weights":[-0.6193508505821228,-0.8060625195503235,-0.3234945237636566,-1.0356054306030273,-1.8668081760406494,-0.1268707662820816,1.2735003232955933,-0.36789649724960327]},"output":{"rows":1,"columns":1,"weights":[-0.3545987010002136]},"inputLookup":null,"inputLookupLength":0,"outputLookup":null,"outputLookupLength":0}